net 
{ 
}
node outcometype 
{
  states = ( "Adoption" "Died" "Euthanasia" "Return_to_owner" "Transfer" );
}
node breedtype 
{
  states = ( "Mixed" "Purebred" );
}
node breedgroup 
{
  states = ( "Companion" "Herding" "Hound" "Sporting" "Terrier" "Working" );
}
node coat.size 
{
  states = ( "large" "medium" "small" );
}
node gender 
{
  states = ( "Female" "Male" );
}
node stateoutcome 
{
  states = ( "Intact" "Neutered/Spayed" );
}
node age.f2 
{
  states = ( "[0_1]" "_1_3]" "_3_7]" "_7_19]" );
}
node name.know 
{
  states = ( "given" "no name" );
}
potential ( outcometype | coat.size gender stateoutcome age.f2 ) 
{
  data = (((((0.059569968 0.000352485 0.034191047 0.186464575 0.719421925)(0.03974563 0.07790143 0.11605723 0.34499205 0.42130366)(0.002932551 0.002932551 0.214076246 0.354838710 0.425219941)(0.003154574 0.003154574 0.305993691 0.381703470 0.305993691))((0.6960411311 0.0001028278 0.0025706941 0.1259640103 0.1753213368)(0.454291974 0.004979088 0.014538936 0.349133639 0.177056363)(0.3995841996 0.0004158004 0.0503118503 0.3796257796 0.1700623701)(0.2130701157 0.0006807352 0.0823689585 0.6215112321 0.0823689585)))(((0.05472888 0.00630517 0.03051702 0.21210593 0.69634300)(0.0414902625 0.0008467401 0.2447078747 0.3869602032 0.3259949196)(0.03045067 0.03045067 0.26431181 0.38124239 0.29354446)(0.002932551 0.002932551 0.214076246 0.565982405 0.214076246))((0.678443761 0.002078311 0.016044559 0.143735971 0.159697398)(0.4261310557 0.0001334579 0.0385693314 0.3844921927 0.1506739624)(0.336640069 0.005391417 0.041621738 0.471209834 0.145136942)(0.23162696 0.01267106 0.12214901 0.49923974 0.13431323))))((((0.05662385 0.01102075 0.07486509 0.13688531 0.72060500)(0.02280743 0.01152128 0.28803198 0.27110275 0.40653656)(0.028274668 0.000577034 0.277553376 0.332948644 0.360646278)(0.04271504 0.01462844 0.33762434 0.33762434 0.26740784))((6.968766e-01 2.364457e-05 1.364292e-02 1.299742e-01 1.594827e-01)(0.506328595 0.001024045 0.058042846 0.281202638 0.153401876)(3.492327e-01 6.643194e-05 4.789743e-02 4.544609e-01 1.483425e-01)(0.226519337 0.006602884 0.097156717 0.520819297 0.148901765)))(((0.04172640 0.01094092 0.09424281 0.20651928 0.64657059)(0.0216187243 0.0001786671 0.3003394676 0.4032517420 0.2746113990)(0.0089637863 0.0003585515 0.3703836501 0.4478307637 0.1724632485)(0.0275126334 0.0005614823 0.2700729927 0.6069623807 0.0948905109))((0.655443587 0.001568509 0.010334973 0.156270815 0.176382115)(0.39100793 0.00348057 0.06892964 0.35311637 0.18346550)(2.839798e-01 6.226262e-05 8.972044e-02 4.558247e-01 1.704128e-01)(0.167213976 0.003283857 0.119926442 0.595954289 0.113621437))))((((0.04282116 0.01081642 0.07838198 0.09616239 0.77181805)(0.05449855 0.02354079 0.14737182 0.13963238 0.63495647)(0.0286717379 0.0005851375 0.1410181393 0.3235810415 0.5061439438)(0.10477371 0.01549907 0.20892746 0.32796032 0.34283943))((0.734448510 0.001005268 0.001005268 0.112951868 0.150589087)(0.530601060 0.001522441 0.004445527 0.266061750 0.197369222)(0.415871905 0.002187418 0.008487182 0.365473795 0.207979701)(0.2654049962 0.0001514005 0.0510219531 0.5161241484 0.1672975019)))(((0.04757198 0.02088224 0.06833066 0.12467565 0.73853948)(0.022663769 0.007761565 0.179136914 0.276001242 0.514436510)(0.0006199628 0.0006199628 0.1940483571 0.3279603224 0.4767513949)(0.0889005786 0.0005260389 0.1394003156 0.4297738033 0.3413992635))((6.509279e-01 3.494915e-05 4.228847e-03 1.426275e-01 2.021808e-01)(4.811620e-01 4.739112e-05 1.028387e-02 2.843941e-01 2.241126e-01)(3.816526e-01 7.464358e-05 1.978055e-02 4.013585e-01 1.971337e-01)(0.25080072 0.01016572 0.06029801 0.46469851 0.21403704))))) ;
}
potential ( breedtype | breedgroup coat.size age.f2 ) 
{
  data = ((((0.93902439 0.06097561)(0.97787611 0.02212389)(0.93902439 0.06097561)(0.5 0.5))((0.9128723 0.0871277)(0.7451855 0.2548145)(0.846779 0.153221)(0.8381215 0.1618785))((0.96199656 0.03800344)(0.93344535 0.06655465)(0.90284472 0.09715528)(0.8549704 0.1450296)))(((0.95084759 0.04915241)(0.92458003 0.07541997)(0.8472669 0.1527331)(0.93998901 0.06001099))((0.96921063 0.03078937)(0.9566918 0.0433082)(0.9207963 0.0792037)(0.95300065 0.04699935))((0.998995581 0.001004419)(0.95788581 0.04211419)(0.9556962 0.0443038)(0.8868987 0.1131013)))(((0.932 0.068)(0.91426928 0.08573072)(0.7395087 0.2604913)(0.8829787 0.1170213))((0.95484113 0.04515887)(0.9554723 0.0445277)(0.841793 0.158207)(0.874278 0.125722))((0.94971814 0.05028186)(0.9556962 0.0443038)(0.8691936 0.1308064)(0.8379526 0.1620474)))(((0.95378151 0.04621849)(0.7471396 0.2528604)(0.8829787 0.1170213)(0.6972603 0.3027397))((0.9799311 0.0200689)(0.96291715 0.03708285)(0.92774181 0.07225819)(0.8707832 0.1292168))((0.97787611 0.02212389)(0.97787611 0.02212389)(0.96753247 0.03246753)(0.93902439 0.06097561)))(((0.5 0.5)(0.5 0.5)(0.5 0.5)(0.5 0.5))((0.97997782 0.02002218)(0.96855761 0.03144239)(0.93214442 0.06785558)(0.8556049 0.1443951))((0.96050692 0.03949308)(0.94458794 0.05541206)(0.92902399 0.07097601)(0.8771946 0.1228054)))(((0.93662613 0.06337387)(0.90312609 0.09687391)(0.8496531 0.1503469)(0.8739181 0.1260819))((0.93617711 0.06382289)(0.8832723 0.1167277)(0.8389594 0.1610406)(0.8861445 0.1138555))((0.5 0.5)(0.5 0.5)(0.5 0.5)(0.5 0.5)))) ;
}
potential ( breedgroup | coat.size ) 
{
  data = ((0.0032859766 0.5556199865 0.0459070262 0.0237266841 0.0002416159 0.3712187107)(0.02192892 0.17575381 0.10423145 0.29423214 0.28593970 0.11791399)(6.618448e-01 2.581802e-02 1.190065e-01 1.455013e-03 1.917910e-01 8.459378e-05)) ;
}
potential ( coat.size ) 
{
  data = ( 0.1241943 0.5210831 0.3547226 );
}
potential ( gender ) 
{
  data = ( 0.4619747 0.5380253 );
}
potential ( stateoutcome | age.f2 name.know ) 
{
  data = (((0.1607434 0.8392566)(0.4203214 0.5796786))((0.125746 0.874254)(0.3500707 0.6499293))((0.1090509 0.8909491)(0.3327526 0.6672474))((0.1665038 0.8334962)(0.4961014 0.5038986))) ;
}
potential ( age.f2 ) 
{
  data = ( 0.47739548 0.27074106 0.16201253 0.08985092 );
}
potential ( name.know | age.f2 ) 
{
  data = ((0.746535 0.253465)(0.8942145 0.1057855)(0.92823804 0.07176196)(0.92290352 0.07709648)) ;
}
