net 
{ 
}
node outcometype 
{
  states = ( "Adoption" "Died" "Euthanasia" "Return_to_owner" "Transfer" );
}
node breedtype 
{
  states = ( "Mixed" "Purebred" );
}
node breedgroup 
{
  states = ( "Companion" "Herding" "Hound" "Sporting" "Terrier" "Working" );
}
node coat.size 
{
  states = ( "large" "medium" "small" );
}
node gender 
{
  states = ( "Female" "Male" );
}
node stateoutcome 
{
  states = ( "Intact" "Neutered/Spayed" );
}
node age.f2 
{
  states = ( "[0_1]" "_1_3]" "_3_7]" "_7_19]" );
}
node name.know 
{
  states = ( "given" "no name" );
}
potential ( outcometype | stateoutcome age.f2 name.know ) 
{
  data = ((((0.089687684 0.003889216 0.055745433 0.250913377 0.599764290)(0.003318731 0.020310633 0.093588212 0.052170450 0.830611974))((0.037480594 0.001996008 0.147482812 0.383455312 0.429585274)(0.006060606 0.038383838 0.517845118 0.049158249 0.388552189))((0.020172911 0.003705228 0.204610951 0.448332647 0.323178263)(0.001745201 0.001745201 0.504363002 0.043630017 0.448516579))((0.074816626 0.004400978 0.156968215 0.540342298 0.223471883)(0.001964637 0.017681729 0.567779961 0.001964637 0.410609037)))(((0.659691655 0.000925487 0.010135211 0.165436446 0.163811201)(7.739917e-01 9.625566e-05 2.406391e-03 2.011743e-02 2.033882e-01))((0.452996906 0.001563048 0.041628122 0.333056876 0.170755048)(0.603917301 0.003264418 0.009067827 0.046789989 0.336960464))((0.3471403376 0.0004535147 0.0460065508 0.4459057697 0.1604938272)(0.446475196 0.007832898 0.028720627 0.077458660 0.439512620))((0.230633975 0.005568038 0.071993748 0.551040344 0.140763896)(0.125725338 0.001934236 0.357833656 0.079303675 0.435203095)))) ;
}
potential ( breedtype | age.f2 ) 
{
  data = ((0.96342705 0.03657295)(0.94049875 0.05950125)(0.8972329 0.1027671)(0.8748121 0.1251879)) ;
}
potential ( breedgroup | age.f2 ) 
{
  data = ((0.2119609 0.1930663 0.1130754 0.1781317 0.2021176 0.1016481)(0.26142976 0.15210308 0.08626766 0.12177889 0.26581879 0.11260183)(0.2905206 0.1388287 0.1058232 0.1424960 0.2091738 0.1131577)(0.30683298 0.15474401 0.08621381 0.17458171 0.16376115 0.11386635)) ;
}
potential ( coat.size | breedgroup ) 
{
  data = ((0.001654864 0.046336181 0.952008956)(0.40651959 0.53952765 0.05395276)(0.05577081 0.53129036 0.41293883)(0.018794978 0.977913030 0.003291992)(0.0001382438 0.6864355231 0.3134262331)(0.42856346 0.57115760 0.00027894)) ;
}
potential ( gender ) 
{
  data = ( 0.4619747 0.5380253 );
}
potential ( stateoutcome | age.f2 ) 
{
  data = ((0.2265373 0.7734627)(0.1494763 0.8505237)(0.1251042 0.8748958)(0.1919146 0.8080854)) ;
}
potential ( age.f2 ) 
{
  data = ( 0.47739548 0.27074106 0.16201253 0.08985092 );
}
potential ( name.know | coat.size stateoutcome age.f2 ) 
{
  data = ((((0.6111438 0.3888562)(0.7983425 0.2016575)(0.8511188 0.1488812)(0.8465046 0.1534954))((0.8133217 0.1866783)(0.9574077 0.0425923)(0.96180062 0.03819938)(0.97762929 0.02237071)))(((0.4809163 0.5190837)(0.7923858 0.2076142)(0.8396727 0.1603273)(0.8060172 0.1939828))((0.8332508 0.1667492)(0.95675376 0.04324624)(0.98209809 0.01790191)(0.97093255 0.02906745)))(((0.5792346 0.4207654)(0.6765264 0.3234736)(0.7528597 0.2471403)(0.7868526 0.2131474))((0.770147 0.229853)(0.8540323 0.1459677)(0.8944252 0.1055748)(0.92477876 0.07522124)))) ;
}
